year,old_care_vir,young_care_vir,old_care_vic,young_care_vic,old_fare_vir,young_fare_vir,old_fare_vic,young_fare_vic,old_loya_vir,young_loya_vir,old_loya_vic,young_loya_vic,old_auth_vir,young_auth_vir,old_auth_vic,young_auth_vic,old_sanc_vir,young_sanc_vir,old_sanc_vic,young_sanc_vic,old_care,old_fare,old_loya,old_auth,old_sanc,old_virtue,old_vice,young_care,young_fare,young_loya,young_auth,young_sanc,young_virtue,young_vice
1950,-0.014116071,0.12274656,0.4908189,0.30023992,-0.17956635,0.03210085,0.11496862,0.01664484,-0.032489784,0.30675903,0.38635978,0.25552195,-0.14025724,0.014930524,0.03291788,-0.10179567,0.09970752,0.2615624,0.11537191,0.0569227,0.4908189,0.11496862,0.38635978,0.03291788,0.11537191,-0.05334438681602478,0.2280874252319336,0.30023992,0.01664484,0.25552195,-0.10179567,0.0569227,0.1476198673248291,0.10550674200057983
1951,-0.05934968,0.13233238,0.5463116,0.43751907,-0.1969503,0.037134044,0.13240176,0.2351386,-0.023234995,0.22761706,0.36547476,0.29496038,-0.14983544,0.05192768,0.05784431,0.05142282,0.09366292,0.28368124,0.11469005,0.13845748,0.5463116,0.13240176,0.36547476,0.05784431,0.11469005,-0.06714149713516235,0.24334449768066407,0.43751907,0.2351386,0.29496038,0.05142282,0.13845748,0.1465384840965271,0.23149967193603516
1952,0.060572878,0.1539418,0.44213986,0.18530917,-0.1570993,0.0015624631,0.05318016,0.019320719,0.0025856048,0.27081695,0.23938124,0.22158484,-0.21994868,-0.07596659,0.11234968,-0.038957316,0.044719644,0.22964048,0.06238179,0.026250998,0.44213986,0.05318016,0.23938124,0.11234968,0.06238179,-0.05383397340774536,0.18188655376434326,0.18530917,0.019320719,0.22158484,-0.038957316,0.026250998,0.11599901914596558,0.0827016830444336
1953,-0.004270468,0.17807278,0.43204182,0.21592027,-0.13293111,0.08485252,0.23235153,0.12976025,0.012624934,0.27685526,0.3221594,0.17236052,-0.19068974,-0.031701393,0.079356894,0.009482883,0.15640464,0.3475817,0.038874507,0.019799683,0.43204182,0.23235153,0.3221594,0.079356894,0.038874507,-0.031772345304489136,0.22095682621002197,0.21592027,0.12976025,0.17236052,0.009482883,0.019799683,0.17113218307495118,0.10946472883224487
1954,-0.04967099,0.14977795,0.48834443,0.29716435,-0.15453914,0.022034645,0.032631114,0.034490038,-0.056214496,0.21554622,0.13271444,0.0672057,-0.18168761,-0.07339683,-0.06508582,-0.095714465,0.033671156,0.24285255,0.08007439,0.047301814,0.48834443,0.032631114,0.13271444,-0.06508582,0.08007439,-0.08168821334838867,0.13373570442199706,0.29716435,0.034490038,0.0672057,-0.095714465,0.047301814,0.11136291027069092,0.07008949518203736
1955,-0.040996093,0.12975973,0.46376675,0.22851378,-0.18426678,-0.081814066,-0.03800707,-0.09159523,-0.056493767,0.2698294,0.34526038,0.19926497,-0.18552619,-0.16029055,-0.07279526,-0.090297885,0.07643315,0.29205108,0.15802418,0.1491208,0.46376675,-0.03800707,0.34526038,-0.07279526,0.15802418,-0.07816993594169616,0.17124979496002196,0.22851378,-0.09159523,0.19926497,-0.090297885,0.1491208,0.08990712165832519,0.07900128364562989
1956,-0.051150456,0.06652523,0.33185917,0.1903278,-0.20504668,-0.07704212,-0.06763521,-0.014894433,0.011102198,0.2741717,0.40179706,0.22529627,-0.10242504,-0.08310413,-0.027541269,-0.091625474,0.10978313,0.24850646,0.13300188,0.042594388,0.33185917,-0.06763521,0.40179706,-0.027541269,0.13300188,-0.047547373175621035,0.15429631471633912,0.1903278,-0.014894433,0.22529627,-0.091625474,0.042594388,0.08581143021583557,0.07033971548080445
1957,-0.058072075,0.11952099,0.3418076,0.28258437,-0.21748376,-0.06131161,-0.013022931,0.052290145,-0.08689737,0.1542814,0.2773521,0.19009344,-0.21170613,-0.10819526,-0.10786773,-0.15545192,0.15429531,0.26247343,0.1130849,0.09597921,0.3418076,-0.013022931,0.2773521,-0.10786773,0.1130849,-0.08397281169891357,0.12227079868316651,0.28258437,0.052290145,0.19009344,-0.15545192,0.09597921,0.07335379123687744,0.09309905171394348
1958,0.024099417,0.06659881,0.3578487,0.1706631,-0.16756415,-0.0975652,-0.12105125,-0.12410057,-0.04981632,0.105898224,0.09549754,0.032062307,-0.13746834,-0.09898023,-0.0706308,-0.16599855,0.10579947,0.21165872,0.034918256,-0.016634023,0.3578487,-0.12105125,0.09549754,-0.0706308,0.034918256,-0.044989985227584836,0.059316492080688475,0.1706631,-0.12410057,0.032062307,-0.16599855,-0.016634023,0.03752206563949585,-0.020801547169685363
1959,0.049973466,0.12763166,0.37994337,0.22672963,-0.18776192,-0.05333779,-0.09437075,-0.104096204,-0.00095289946,0.15008624,0.093827635,0.07365943,-0.14883386,-0.15134445,0.0020103455,-0.09289606,0.11038146,0.26223946,0.11858107,0.067734376,0.37994337,-0.09437075,0.093827635,0.0020103455,0.11858107,-0.035438746213912964,0.0999983310699463,0.22672963,-0.104096204,0.07365943,-0.09289606,0.067734376,0.06705502271652222,0.034226232767105104
1960,-0.020452533,0.044976346,0.3015164,0.14911422,-0.18978497,-0.12772942,-0.01836073,-0.042772837,-0.095670424,0.08154565,0.13143289,0.09559904,-0.14858955,-0.1382665,-0.058560792,-0.104772516,0.003205968,0.1785402,0.01910181,-0.054586694,0.3015164,-0.01836073,0.13143289,-0.058560792,0.01910181,-0.09025830626487732,0.07502591609954834,0.14911422,-0.042772837,0.09559904,-0.104772516,-0.054586694,0.007813256978988648,0.008516241610050202
1961,-0.050265,0.08839129,0.4040575,0.25194928,-0.24967326,-0.13068134,0.050394047,0.029193595,-0.10803718,0.11480816,0.09472713,-0.0008343272,-0.16094127,-0.16070983,-0.19407654,-0.14884928,0.039924808,0.17306705,-0.07464597,-0.038827978,0.4040575,0.050394047,0.09472713,-0.19407654,-0.07464597,-0.10579837560653686,0.05609124302864075,0.25194928,0.029193595,-0.0008343272,-0.14884928,-0.038827978,0.016975066065788268,0.018526263535022736
1962,-0.05736762,0.0683445,0.30765417,0.22016671,-0.2412006,-0.11565176,-0.04068227,-0.020420484,-0.11393339,0.117617995,0.2738122,0.19366278,-0.10000852,-0.11612349,-0.1556064,-0.16203997,0.05091733,0.19027895,0.004825644,-0.008385869,0.30765417,-0.04068227,0.2738122,-0.1556064,0.004825644,-0.09231855869293212,0.07800067663192749,0.22016671,-0.020420484,0.19366278,-0.16203997,-0.008385869,0.02889323830604553,0.044596636295318605
1963,-0.10620784,0.032304764,0.31358594,0.13598281,-0.23800926,-0.119571775,-0.10318987,-0.0784692,-0.16214508,0.0034497716,0.10462631,-0.027112134,-0.121748365,-0.0894645,0.023677155,-0.09971762,0.06808528,0.19725795,-0.0044433624,-0.04520245,0.31358594,-0.10318987,0.10462631,0.023677155,-0.0044433624,-0.11200506687164306,0.06685123443603516,0.13598281,-0.0784692,-0.027112134,-0.09971762,-0.04520245,0.004795241355895996,-0.022903718054294586
1964,-0.09095622,0.05706715,0.14242493,-0.008115787,-0.31358296,-0.16331649,-0.13419084,-0.059001677,-0.2109353,0.009727776,0.08527516,0.040952846,-0.29020503,-0.18067238,-0.19778536,-0.19746104,0.031552657,0.15099886,-0.054392602,-0.06940919,0.14242493,-0.13419084,0.08527516,-0.19778536,-0.054392602,-0.1748253583908081,-0.031733745336532594,-0.008115787,-0.059001677,0.040952846,-0.19746104,-0.06940919,-0.025239014625549318,-0.058606970310211184
1965,-0.041151155,0.08302502,0.14054418,-0.08800418,-0.2782747,-0.16396153,-0.07443201,-0.030106805,-0.18413,0.053529125,-0.028242797,-0.04834,-0.15307434,-0.16304031,-0.23148303,-0.19992453,-0.033848666,0.05642116,-0.1704346,-0.13060687,0.14054418,-0.07443201,-0.028242797,-0.23148303,-0.1704346,-0.13809576034545898,-0.07280964851379394,-0.08800418,-0.030106805,-0.04834,-0.19992453,-0.13060687,-0.026805305480957033,-0.09939647912979126
1966,0.07271709,0.012296636,0.12226689,-0.09865275,-0.23449585,-0.16033405,0.11873177,0.0925446,-0.26301283,-0.0810911,-0.14951973,-0.11894691,-0.102371715,0.036063313,-0.25624448,-0.17538886,-0.054798484,0.011819828,-0.26570702,-0.1561503,0.12226689,0.11873177,-0.14951973,-0.25624448,-0.26570702,-0.11639235019683838,-0.08609451055526733,-0.09865275,0.0925446,-0.11894691,-0.17538886,-0.1561503,-0.03624907433986664,-0.09131884574890137
1967,0.08661693,0.10648769,0.16478871,0.1228212,-0.1725786,-0.063309856,0.0025672112,0.13636728,-0.13477176,0.09666066,-0.10988188,-0.14480135,-0.16188625,-0.15789859,-0.2677124,-0.2173582,0.040266298,0.12750582,-0.25167865,-0.16522904,0.16478871,0.0025672112,-0.10988188,-0.2677124,-0.25167865,-0.06847067475318909,-0.09238340258598328,0.1228212,0.13636728,-0.14480135,-0.2173582,-0.16522904,0.0218891441822052,-0.05364001989364624
1968,0.074525714,0.06436496,0.25870162,0.31687796,-0.26703793,0.01139248,-0.04682064,0.1461626,-0.12749419,0.024147015,0.026334267,0.007308714,-0.047415994,0.103147335,-0.3046302,-0.22706369,0.013400136,0.11657471,-0.2402699,-0.20117563,0.25870162,-0.04682064,0.026334267,-0.3046302,-0.2402699,-0.07080445289611817,-0.06133697032928467,0.31687796,0.1461626,0.007308714,-0.22706369,-0.20117563,0.06392530202865601,0.008421993255615235
1969,0.1071437,0.095103815,0.35825253,0.12831822,-0.19333492,-0.12509364,-0.024660902,0.085405976,-0.15336058,-0.032678805,0.028396212,-0.17325652,-0.070780054,0.0010844022,-0.24105667,-0.19723308,0.05015162,-0.02159629,-0.111059114,-0.0643942,0.35825253,-0.024660902,0.028396212,-0.24105667,-0.111059114,-0.05203604698181152,0.001974409818649292,0.12831822,0.085405976,-0.17325652,-0.19723308,-0.0643942,-0.01663610339164734,-0.044231921434402466
1970,0.08173978,0.19328462,0.19705066,0.005647421,-0.18462712,-0.022219475,-0.058823578,0.067530856,-0.15223779,0.078170955,0.2164551,-0.013096392,0.0045086853,0.06715244,-0.22383799,-0.16221496,-0.003414292,-0.022108816,-0.12820135,-0.15975448,0.19705066,-0.058823578,0.2164551,-0.22383799,-0.12820135,-0.05080614686012268,0.0005285680294036865,0.005647421,0.067530856,-0.013096392,-0.16221496,-0.15975448,0.05885594487190247,-0.052377510070800784
1971,-0.057641096,0.1667563,0.126351,-0.043555852,-0.23149574,-0.0478156,0.031432558,0.21049632,-0.12851389,0.1517562,0.07443713,-0.013173394,0.08797052,0.1551542,-0.15418276,-0.107565716,-0.106706224,0.042976283,-0.14957467,-0.06298894,0.126351,0.031432558,0.07443713,-0.15418276,-0.14957467,-0.08727728128433228,-0.014307349920272827,-0.043555852,0.21049632,-0.013173394,-0.107565716,-0.06298894,0.09376547932624817,-0.00335751473903656
1972,-0.04591334,0.08236669,0.11654137,-0.107000604,-0.28162444,-0.13490842,-0.059021443,0.012220494,-0.22137533,0.11181231,0.048176065,-0.04976795,-0.053203046,-0.018286364,-0.15942998,-0.12781318,-0.07486038,0.03514502,-0.13069627,-0.12939876,0.11654137,-0.059021443,0.048176065,-0.15942998,-0.13069627,-0.13539531230926513,-0.036886051297187805,-0.107000604,0.012220494,-0.04976795,-0.12781318,-0.12939876,0.015225845575332641,-0.08035199642181397
1973,-0.06221267,0.050491847,0.19426021,-0.085360445,-0.2565958,-0.119636886,-0.0023559853,-0.00425718,-0.19851686,0.076175526,0.15089399,-0.027325088,-0.14208195,-0.10591338,-0.059181258,-0.22591436,-0.09673086,0.06256723,-0.012179092,-0.12128818,0.19426021,-0.0023559853,0.15089399,-0.059181258,-0.012179092,-0.15122761726379394,0.05428757667541504,-0.085360445,-0.00425718,-0.027325088,-0.22591436,-0.12128818,-0.007263132929801941,-0.09282904863357544
1974,-0.043675847,0.0505021,0.32164493,0.016493417,-0.26023078,-0.08619322,0.19092545,0.11700924,-0.2087597,0.117031485,0.08235645,-0.113683835,-0.011610808,-0.076182425,0.05137324,-0.15227908,-0.091839075,0.022412807,0.0031167604,-0.1212401,0.32164493,0.19092545,0.08235645,0.05137324,0.0031167604,-0.12322324514389038,0.12988337278366088,0.016493417,0.11700924,-0.113683835,-0.15227908,-0.1212401,0.0055141493678092955,-0.05074006915092468
1975,-0.060236916,0.02541896,0.092231095,-0.105933934,-0.2671419,-0.15479265,-0.051797055,0.019581333,-0.22791755,0.05706364,0.016958073,-0.11298982,-0.1062839,-0.12091526,-0.16627431,-0.15821059,0.051188134,0.07585906,-0.0065161064,-0.091004014,0.092231095,-0.051797055,0.016958073,-0.16627431,-0.0065161064,-0.1220784306526184,-0.023079660534858704,-0.105933934,0.019581333,-0.11298982,-0.15821059,-0.091004014,-0.0234732523560524,-0.08971140384674073
1976,-0.032809477,0.07799655,-0.0021641813,-0.094305426,-0.21129194,-0.041295823,-0.01116218,0.039688073,-0.24148129,-0.010954801,-0.054232758,-0.2639528,-0.06594737,0.033717204,-0.23612288,-0.25359282,0.110965,0.09286439,-0.09867088,-0.13805997,-0.0021641813,-0.01116218,-0.054232758,-0.23612288,-0.09867088,-0.08811300992965698,-0.08047057390213012,-0.094305426,0.039688073,-0.2639528,-0.25359282,-0.13805997,0.03046550452709198,-0.1420445919036865
1977,0.048854083,0.08888079,0.019385196,-0.076123774,-0.19430543,-0.023872443,0.056652233,0.2290312,-0.16368634,0.103721626,0.020053716,-0.116979964,-0.055939857,0.00656398,-0.18559845,-0.20193271,0.11327466,0.14153498,-0.08406427,-0.10164791,0.019385196,0.056652233,0.020053716,-0.18559845,-0.08406427,-0.05036057829856873,-0.03471431434154511,-0.076123774,0.2290312,-0.116979964,-0.20193271,-0.10164791,0.06336578726768494,-0.05353063344955444
1978,-0.06678016,0.066926,0.16709967,0.048398644,-0.23107964,-0.077270746,0.07107928,0.07040854,-0.08177204,0.19956315,0.20138156,0.12649763,-0.05300661,0.017498542,-0.19834432,-0.20090866,0.15371498,0.29725403,0.025806539,0.041174203,0.16709967,0.07107928,0.20138156,-0.19834432,0.025806539,-0.05578469038009644,0.05340454578399658,0.048398644,0.07040854,0.12649763,-0.20090866,0.041174203,0.10079419612884521,0.017114070057868958
1979,-0.09075394,0.042106565,0.10220959,0.07641002,-0.23207916,-0.07922151,0.053682894,0.15307154,-0.031105287,0.21426985,0.14000468,0.048307113,-0.075040706,-0.006862427,-0.10259231,-0.11622891,0.22203295,0.32224417,0.084579475,0.076265305,0.10220959,0.053682894,0.14000468,-0.10259231,0.084579475,-0.04138922989368439,0.05557686686515808,0.07641002,0.15307154,0.048307113,-0.11622891,0.076265305,0.09850732684135437,0.04756501317024231
1980,-0.05903764,0.072722584,0.25711548,0.16082904,-0.16693099,-0.02743188,0.16189602,0.21383595,-0.062064804,0.19718853,0.21281025,0.08952602,-0.0841618,-0.0023257602,-0.07031933,-0.11445695,0.22728711,0.35071945,0.3177692,0.2634867,0.25711548,0.16189602,0.21281025,-0.07031933,0.3177692,-0.02898162603378296,0.17585432529449463,0.16082904,0.21383595,0.08952602,-0.11445695,0.2634867,0.11817458868026734,0.12264416217803956
1981,0.06502691,0.106162965,0.2984506,0.16313046,-0.18702497,-0.04336315,0.18222007,0.19348839,0.043607146,0.23643869,0.34755898,0.1052724,-0.13123652,-0.051461738,-0.07273248,-0.1244931,0.25578195,0.34058946,0.25251245,0.18211368,0.2984506,0.18222007,0.34755898,-0.07273248,0.25251245,0.009230902791023255,0.2016019344329834,0.16313046,0.19348839,0.1052724,-0.1244931,0.18211368,0.11767324209213256,0.10390236377716064
1982,0.028583366,0.10435898,0.25620872,0.13645831,-0.18576774,-0.061548077,0.18723226,0.20394138,0.058147907,0.25778633,0.28352892,0.17380694,-0.07736872,0.01963593,-0.038968105,-0.10743812,0.24543276,0.33562303,0.307683,0.24331628,0.25620872,0.18723226,0.28352892,-0.038968105,0.307683,0.013805514574050904,0.1991369605064392,0.13645831,0.20394138,0.17380694,-0.10743812,0.24331628,0.1311712384223938,0.1300169587135315
1983,0.032810163,0.09803842,0.31924796,0.12934357,-0.14051905,0.0059948564,0.2706462,0.27994835,0.06348044,0.2656396,0.23456012,0.1094609,-0.09968541,0.008790784,-0.031098515,-0.12944831,0.28166527,0.3657522,0.3029083,0.20591798,0.31924796,0.2706462,0.23456012,-0.031098515,0.3029083,0.02755028009414673,0.2192528247833252,0.12934357,0.27994835,0.1094609,-0.12944831,0.20591798,0.1488431692123413,0.11904449462890625
1984,-0.020951726,0.067632124,0.4120346,0.13062418,-0.15415728,-0.079627566,0.13561834,0.12393798,0.08348873,0.25077963,0.37108487,0.09357548,-0.08731169,-0.036052622,0.05121015,-0.08844679,0.28381497,0.30160606,0.47478282,0.26984486,0.4120346,0.13561834,0.37108487,0.05121015,0.47478282,0.020976603031158447,0.28894615173339844,0.13062418,0.12393798,0.09357548,-0.08844679,0.26984486,0.10086753368377685,0.10590713024139405
1985,0.049070816,0.047197044,0.35152096,0.09653203,-0.091172315,-0.031279393,0.28218102,0.15675355,0.10084338,0.25763538,0.48166227,0.25212264,0.021194091,0.05911155,0.04402246,-0.09707974,0.35373294,0.40992537,0.3889934,0.19411589,0.35152096,0.28218102,0.48166227,0.04402246,0.3889934,0.08673378229141235,0.3096760272979736,0.09653203,0.15675355,0.25212264,-0.09707974,0.19411589,0.14851799011230468,0.12048887014389038
1986,-0.015319563,0.05250038,0.2795458,0.111193866,-0.14092626,0.020738624,0.3638379,0.31412178,0.10213041,0.2771936,0.42856753,0.31874096,-0.057971932,0.023269683,0.19230969,0.025214171,0.36481535,0.45762217,0.42618197,0.28606907,0.2795458,0.3638379,0.42856753,0.19230969,0.42618197,0.05054560303688049,0.3380886077880859,0.111193866,0.31412178,0.31874096,0.025214171,0.28606907,0.16626489162445068,0.21106796264648436
1987,-0.007555034,0.05572804,0.39383295,0.20624861,-0.16409558,0.004776437,0.25687438,0.24243635,0.1009521,0.29399827,0.4893278,0.3306387,-0.014265999,0.051693436,0.3835405,0.14445823,0.34057906,0.37789583,0.4115591,0.26744157,0.39383295,0.25687438,0.4893278,0.3835405,0.4115591,0.051122909784317015,0.3870269536972046,0.20624861,0.24243635,0.3306387,0.14445823,0.26744157,0.1568184018135071,0.23824470043182372
1988,0.020461682,0.039993316,0.32100523,0.16377634,-0.11544551,-0.012668405,0.370713,0.311168,0.14910847,0.30789015,0.4588005,0.2680722,-0.0022507515,-0.0023923442,0.14840353,0.036931228,0.39061356,0.3653794,0.44752073,0.24286538,0.32100523,0.370713,0.4588005,0.14840353,0.44752073,0.08849748969078064,0.34928858280181885,0.16377634,0.311168,0.2680722,0.036931228,0.24286538,0.1396404266357422,0.2045626163482666
1989,-0.026388815,0.05788935,0.2056068,0.112185426,-0.18458846,-0.021661844,0.22779201,0.22699618,0.056194663,0.25155804,0.3614636,0.2677169,-0.09819432,-0.019165859,-0.056190673,-0.034854818,0.33836913,0.39130265,0.3353061,0.3064854,0.2056068,0.22779201,0.3614636,-0.056190673,0.3353061,0.01707844138145447,0.21479556560516358,0.112185426,0.22699618,0.2677169,-0.034854818,0.3064854,0.1319844603538513,0.17570582628250123
1990,-0.045126427,0.051284328,0.3031761,0.1389813,-0.19609767,-0.07163862,0.12321002,0.18211868,0.01775691,0.17597714,0.39171505,0.26801434,-0.11884594,-0.07677252,-0.079575986,-0.022475742,0.28744853,0.37084916,0.31921405,0.2154486,0.3031761,0.12321002,0.39171505,-0.079575986,0.31921405,-0.010972917079925537,0.2115478515625,0.1389813,0.18211868,0.26801434,-0.022475742,0.2154486,0.08993989825248719,0.15641744136810304
1991,-0.013245538,0.0092492215,0.39569056,0.23839132,-0.17929143,-0.045764327,0.13561544,0.116780266,0.06206083,0.2352756,0.2978458,0.18039146,-0.01930584,-0.019431682,0.015111216,0.038360864,0.30989432,0.4115344,0.44144738,0.27391267,0.39569056,0.13561544,0.2978458,0.015111216,0.44144738,0.032022470235824586,0.25714209079742434,0.23839132,0.116780266,0.18039146,0.038360864,0.27391267,0.11817264556884766,0.16956732273101807
1992,-0.016142499,0.03173171,0.40212587,0.2113473,-0.15270974,-0.08023226,0.1895383,0.15446737,0.18366495,0.3205053,0.43926394,0.30955416,-0.0024447907,-0.011318222,0.12122631,0.12850171,0.42757508,0.4427195,0.5870156,0.42664036,0.40212587,0.1895383,0.43926394,0.12122631,0.5870156,0.0879885971546173,0.34783401489257815,0.2113473,0.15446737,0.30955416,0.12850171,0.42664036,0.14068119525909423,0.2461021900177002
1993,0.024676014,0.06889052,0.35622773,0.20533605,-0.1630586,-0.047519363,0.1396656,0.11806593,0.20084405,0.29437423,0.6488198,0.48256546,-0.08434281,-0.045159847,0.39096767,0.12320828,0.43168953,0.48799485,0.5765943,0.42395067,0.35622773,0.1396656,0.6488198,0.39096767,0.5765943,0.08196163773536683,0.4224550247192383,0.20533605,0.11806593,0.48256546,0.12320828,0.42395067,0.15171607732772827,0.27062528133392333
1994,-0.009746186,0.0070610903,0.47089458,0.2560454,-0.17372401,-0.11286379,0.11658882,0.017068101,0.17396814,0.2504671,0.50064427,0.33668464,-0.056450076,-0.050051223,0.14711817,0.045311365,0.36722144,0.41246772,0.60684204,0.428811,0.47089458,0.11658882,0.50064427,0.14711817,0.60684204,0.060253864526748656,0.3684175729751587,0.2560454,0.017068101,0.33668464,0.045311365,0.428811,0.10141618251800537,0.21678409576416016
1995,0.0033705924,0.04449745,0.43659753,0.20433877,-0.21188182,-0.06736415,0.10243122,0.006801948,0.14231977,0.24989976,0.41099575,0.16741116,-0.12638533,-0.161675,0.12161904,-0.072356835,0.34128958,0.35732746,0.4189029,0.21994796,0.43659753,0.10243122,0.41099575,0.12161904,0.4189029,0.029742559790611266,0.29810926914215086,0.20433877,0.006801948,0.16741116,-0.072356835,0.21994796,0.08453710079193115,0.1052286148071289
1996,-0.06743202,-0.014020115,0.34001353,0.16604726,-0.20655815,-0.09088312,0.2359775,0.17594749,0.054443393,0.22442916,0.438508,0.30149543,-0.14228237,-0.12227674,-0.029281478,-0.17529784,0.26518166,0.35202506,0.4033783,0.29121417,0.34001353,0.2359775,0.438508,-0.029281478,0.4033783,-0.01932950019836426,0.27771916389465334,0.16604726,0.17594749,0.30149543,-0.17529784,0.29121417,0.06985484957695007,0.15188130140304565
1997,0.016266868,0.014484876,0.3377483,0.16297862,-0.18633594,-0.10235076,0.15738252,0.0653975,0.11337597,0.22802216,0.47861752,0.32827276,-0.09022437,-0.12602049,0.122375794,0.02216217,0.29507485,0.3323968,0.3882909,0.25957587,0.3377483,0.15738252,0.47861752,0.122375794,0.3882909,0.02963147759437561,0.29688301086425783,0.16297862,0.0653975,0.32827276,0.02216217,0.25957587,0.06930651664733886,0.16767737865447999
1998,0.024501456,0.0269094,0.35701007,0.16321766,-0.15340614,-0.087299556,0.31641793,0.19299501,0.1463204,0.28643513,0.5369904,0.23118056,-0.068287306,-0.07828842,0.2198769,0.023913193,0.39856774,0.42485058,0.49128667,0.27486253,0.35701007,0.31641793,0.5369904,0.2198769,0.49128667,0.06953923106193542,0.38431639671325685,0.16321766,0.19299501,0.23118056,0.023913193,0.27486253,0.1145214319229126,0.17723379135131836
1999,0.04522546,0.064232424,0.2636609,0.07930425,-0.15761963,-0.07610177,0.1833108,0.05452323,0.18626055,0.33082396,0.3502874,0.20517267,-0.13735196,-0.13568486,0.07095765,-0.02246111,0.34712392,0.44354385,0.3742814,0.2533838,0.2636609,0.1833108,0.3502874,0.07095765,0.3742814,0.05672767162322998,0.24849963188171387,0.07930425,0.05452323,0.20517267,-0.02246111,0.2533838,0.12536271810531616,0.1139845609664917
2000,-0.03971625,0.0711222,0.31101418,0.13250759,-0.15905754,-0.062306978,0.16275488,0.07933154,0.15549216,0.3255726,0.3777206,0.24606451,-0.10529353,-0.10710909,0.20893058,0.025179699,0.350613,0.40059483,0.43746462,0.27252042,0.31101418,0.16275488,0.3777206,0.20893058,0.43746462,0.04040756523609161,0.2995769739151001,0.13250759,0.07933154,0.24606451,0.025179699,0.27252042,0.12557470798492432,0.15112075805664063
2001,-0.05236365,0.02110269,0.289351,0.15120275,-0.24257505,-0.07621583,0.19867447,0.0808868,0.13023624,0.32289845,0.43786073,0.24526033,-0.167173,-0.118980974,0.08953196,0.034782574,0.3006601,0.42064983,0.3800258,0.24390113,0.289351,0.19867447,0.43786073,0.08953196,0.3800258,-0.006243067979812622,0.27908878326416015,0.15120275,0.0808868,0.24526033,0.034782574,0.24390113,0.11389083862304687,0.15120671987533568
2002,0.018751044,0.055591248,0.2656805,0.112141855,-0.19159546,-0.05899958,0.21482751,0.078005694,0.10196467,0.2525673,0.53443867,0.37013093,-0.13909325,-0.13950455,0.22430658,0.11339343,0.35410678,0.42361456,0.52227795,0.29852644,0.2656805,0.21482751,0.53443867,0.22430658,0.52227795,0.028826755285263062,0.3523062467575073,0.112141855,0.078005694,0.37013093,0.11339343,0.29852644,0.10665379762649536,0.19443967342376708
2003,-0.0012153313,0.0122028515,0.29959276,0.12793891,-0.21606582,-0.0829312,0.11248154,0.07272367,0.14828819,0.29278466,0.43036598,0.25352022,-0.22750448,-0.17686355,0.1475207,0.09267977,0.300637,0.36563656,0.26492494,0.11604368,0.29959276,0.11248154,0.43036598,0.1475207,0.26492494,0.0008279085159301758,0.2509771823883057,0.12793891,0.07272367,0.25352022,0.09267977,0.11604368,0.08216586112976074,0.1325812578201294
2004,0.017415423,0.051247336,0.30134302,0.15500107,-0.14388111,-0.070782974,0.118945874,0.01782947,0.15836386,0.26533037,0.30757862,0.1746673,-0.113019764,-0.15546882,0.017517835,0.03870309,0.36299604,0.37175483,0.33604985,0.12181152,0.30134302,0.118945874,0.30757862,0.017517835,0.33604985,0.05637488961219787,0.2162870407104492,0.15500107,0.01782947,0.1746673,0.03870309,0.12181152,0.09241614937782287,0.10160249471664429
2005,-0.024065454,0.076668434,0.32801607,0.20284906,-0.18768746,0.005051218,0.13501589,0.14286825,0.18230268,0.3494318,0.58613247,0.35308677,-0.19726722,-0.14307281,0.0746187,0.06349677,0.3585595,0.40788922,0.44464692,0.20093745,0.32801607,0.13501589,0.58613247,0.0746187,0.44464692,0.026368409395217896,0.3136860132217407,0.20284906,0.14286825,0.35308677,0.06349677,0.20093745,0.1391935706138611,0.19264765977859497
2006,-0.068909355,0.024596829,0.37781852,0.21972781,-0.14855906,-0.030719787,0.13477182,0.08040644,0.16191013,0.3305766,0.4400216,0.23582436,-0.19938874,-0.17474535,0.16779515,0.1442873,0.33658993,0.41953033,0.5141129,0.30444497,0.37781852,0.13477182,0.4400216,0.16779515,0.5141129,0.016328585147857667,0.3269040107727051,0.21972781,0.08040644,0.23582436,0.1442873,0.30444497,0.11384773254394531,0.19693816900253297
2007,-0.061960526,0.046057634,0.3642246,0.20098224,-0.17137282,-0.012019202,0.16349474,0.13562575,0.067604735,0.32761225,0.49182162,0.3839448,-0.14504008,-0.13453849,0.110238925,0.17809057,0.3296041,0.4430418,0.48210746,0.2446566,0.3642246,0.16349474,0.49182162,0.110238925,0.48210746,0.0037670791149139403,0.32237749099731444,0.20098224,0.13562575,0.3839448,0.17809057,0.2446566,0.13403079509735108,0.228659987449646
2008,0.008332439,0.07286604,0.27961046,0.15428844,-0.12207429,0.022274338,0.1997789,0.10957176,0.120291315,0.30367,0.3439815,0.21846038,-0.19163722,-0.14950244,0.24249624,0.22419128,0.29330403,0.38352427,0.4177864,0.22792557,0.27961046,0.1997789,0.3439815,0.24249624,0.4177864,0.021643254160881042,0.2967306852340698,0.15428844,0.10957176,0.21846038,0.22419128,0.22792557,0.12656643390655517,0.18688747882843018
2009,-0.050323837,0.03393323,0.33425778,0.18686177,-0.15938506,-0.022581832,0.14594018,0.070852146,0.13859226,0.29791388,0.44646055,0.26100975,-0.09465149,-0.09220369,0.08155824,0.06800805,0.32270518,0.3885445,0.3025365,0.14162621,0.33425778,0.14594018,0.44646055,0.08155824,0.3025365,0.031387409567832945,0.2621506452560425,0.18686177,0.070852146,0.26100975,0.06800805,0.14162621,0.1211212158203125,0.14567158222198487
2010,0.0010679066,0.09026187,0.33738694,0.19328953,-0.12893482,-0.004830951,0.16150472,0.13985215,0.16168556,0.33803415,0.45812988,0.31881025,-0.11917229,-0.06192325,0.05659666,0.10912344,0.26377878,0.35975507,0.37089762,0.22653536,0.33738694,0.16150472,0.45812988,0.05659666,0.37089762,0.0356850266456604,0.27690317630767824,0.19328953,0.13985215,0.31881025,0.10912344,0.22653536,0.14425938129425048,0.19752215147018432
2011,-0.053845644,0.051317398,0.27345067,0.12437951,-0.16124526,0.008264419,0.14495191,0.10177378,0.16887778,0.35647434,0.4522007,0.28608596,-0.118330434,-0.05536643,-0.013648134,0.023454215,0.30117917,0.39363235,0.34525824,0.2133447,0.27345067,0.14495191,0.4522007,-0.013648134,0.34525824,0.027327123284339904,0.24044268131256102,0.12437951,0.10177378,0.28608596,0.023454215,0.2133447,0.15086441040039061,0.14980762004852294
2012,-0.06404709,0.05908377,0.2674269,0.12115994,-0.20271274,-0.011367314,0.13554475,0.115890555,0.11223594,0.31271443,0.32173946,0.28024617,-0.15996729,-0.101847194,0.022621006,0.029557005,0.25100935,0.3204921,0.4817267,0.24971075,0.2674269,0.13554475,0.32173946,0.022621006,0.4817267,-0.012696373462677001,0.24581174850463866,0.12115994,0.115890555,0.28024617,0.029557005,0.24971075,0.1158151626586914,0.1593128800392151
2013,0.025070405,0.12099524,0.26215982,0.17244315,-0.1586553,0.029772496,0.09749978,0.15450789,0.1831538,0.35369706,0.46687412,0.2784346,-0.1451903,-0.04349748,-0.0073761716,0.098881885,0.37619328,0.40269744,0.29264605,0.1932541,0.26215982,0.09749978,0.46687412,-0.0073761716,0.29264605,0.056114375591278076,0.2223607063293457,0.17244315,0.15450789,0.2784346,0.098881885,0.1932541,0.17273294925689697,0.17950433492660522
2014,-0.036672637,0.097127125,0.22245285,0.117599964,-0.19894683,0.016384223,0.07692021,0.095083766,0.17146975,0.34524018,0.45010203,0.2733767,-0.14270818,-0.11695683,0.0067011043,0.06452834,0.29339296,0.33838534,0.25544965,0.10455558,0.22245285,0.07692021,0.45010203,0.0067011043,0.25544965,0.017307010293006898,0.202325177192688,0.117599964,0.095083766,0.2733767,0.06452834,0.10455558,0.13603601455688477,0.1310288667678833
2015,0.0057389215,0.12988687,0.31763268,0.17238283,-0.16570695,0.015242249,0.0879107,0.07087274,0.19343427,0.37308416,0.4810236,0.270242,-0.13410786,-0.040429592,0.035567593,0.055425465,0.31735054,0.3922064,0.3866077,0.2147489,0.31763268,0.0879107,0.4810236,0.035567593,0.3866077,0.04334178566932678,0.2617484569549561,0.17238283,0.07087274,0.270242,0.055425465,0.2147489,0.17399802207946777,0.15673439502716063
2016,-0.04216546,0.08952236,0.287659,0.15762623,-0.19602434,-0.0058560297,0.0072647333,0.11832382,0.18469943,0.35187626,0.42649192,0.24407077,-0.12152408,-0.06823545,-0.17840354,-0.096809015,0.30496418,0.33446917,0.3536717,0.14167126,0.287659,0.0072647333,0.42649192,-0.17840354,0.3536717,0.025989946722984315,0.1793367624282837,0.15762623,0.11832382,0.24407077,-0.096809015,0.14167126,0.1403552532196045,0.11297661066055298
2017,-0.056289926,0.13807441,0.3708307,0.19729389,-0.23776156,-0.012328077,0.12240642,0.16401073,0.17581534,0.39660543,0.5077977,0.28290528,-0.13298772,-0.09561302,-0.09912583,-0.10667162,0.2758978,0.33874214,0.3921497,0.11070757,0.3708307,0.12240642,0.5077977,-0.09912583,0.3921497,0.004934787750244141,0.2588117361068726,0.19729389,0.16401073,0.28290528,-0.10667162,0.11070757,0.15309617519378663,0.12964917421340943
2018,-0.11464456,0.109937906,0.31364742,0.14383192,-0.20237151,-0.0006617401,0.16050927,0.043369487,0.06617352,0.33505023,0.49493665,0.34321812,-0.12296579,-0.042341597,0.08201462,0.013724549,0.31539893,0.35214192,0.3871708,0.095130265,0.31364742,0.16050927,0.49493665,0.08201462,0.3871708,-0.011681878566741943,0.28765573501586916,0.14383192,0.043369487,0.34321812,0.013724549,0.095130265,0.15082534551620483,0.12785487174987792
2019,-0.09382166,0.06401734,0.27540413,0.08461616,-0.16160405,0.0040052626,0.14048997,0.053098023,0.058299836,0.33090723,0.43855608,0.17225556,-0.1104105,-0.09956059,-0.106860906,-0.0729516,0.19899847,0.2606516,0.44321316,0.046551142,0.27540413,0.14048997,0.43855608,-0.106860906,0.44321316,-0.021707579493522644,0.23816046714782715,0.08461616,0.053098023,0.17225556,-0.0729516,0.046551142,0.11200416088104248,0.056713855266571044
2020,-0.0692097,0.12669162,0.15791976,-0.008466714,-0.15197484,-0.035419323,0.059277106,0.105392426,0.067258716,0.33994973,0.22527075,0.07775115,-0.12375865,-0.08289827,-0.018035159,-0.05850431,0.2714041,0.37843287,0.22564447,0.03939554,0.15791976,0.059277106,0.22527075,-0.018035159,0.22564447,-0.0012560784816741943,0.13001538515090943,-0.008466714,0.105392426,0.07775115,-0.05850431,0.03939554,0.1453513264656067,0.03111361861228943
2021,-0.11788638,0.044220466,0.24764335,0.0057371743,-0.15643494,-0.0968063,0.14294577,0.033523105,0.051344544,0.34413204,0.28969103,0.09388464,-0.13422848,-0.15224555,0.022815704,-0.031170959,0.19253117,0.3072446,0.4594038,0.0898226,0.24764335,0.14294577,0.28969103,0.022815704,0.4594038,-0.032934820652008055,0.23249993324279786,0.0057371743,0.033523105,0.09388464,-0.031170959,0.0898226,0.08930904865264892,0.03835931122303009
